digraph Tree {
node [shape=box] ;
0 [label="X[1] <= 24.44\nentropy = 1.0\nsamples = 426\nvalue = [213, 213]"] ;
1 [label="X[4] <= 0.154\nentropy = 0.055\nsamples = 158\nvalue = [157, 1]"] ;
0 -> 1 [labeldistance=2.5, labelangle=45, headlabel="True"] ;
2 [label="entropy = 0.0\nsamples = 157\nvalue = [157, 0]"] ;
1 -> 2 ;
3 [label="entropy = 0.0\nsamples = 1\nvalue = [0, 1]"] ;
1 -> 3 ;
4 [label="X[4] <= 0.073\nentropy = 0.739\nsamples = 268\nvalue = [56, 212]"] ;
0 -> 4 [labeldistance=2.5, labelangle=-45, headlabel="False"] ;
5 [label="entropy = 0.0\nsamples = 40\nvalue = [40, 0]"] ;
4 -> 5 ;
6 [label="X[2] <= 70.81\nentropy = 0.367\nsamples = 228\nvalue = [16, 212]"] ;
4 -> 6 ;
7 [label="entropy = 0.0\nsamples = 8\nvalue = [8, 0]"] ;
6 -> 7 ;
8 [label="X[3] <= 0.072\nentropy = 0.225\nsamples = 220\nvalue = [8, 212]"] ;
6 -> 8 ;
9 [label="entropy = 0.0\nsamples = 5\nvalue = [5, 0]"] ;
8 -> 9 ;
10 [label="X[0] <= 68.5\nentropy = 0.106\nsamples = 215\nvalue = [3, 212]"] ;
8 -> 10 ;
11 [label="entropy = 0.0\nsamples = 3\nvalue = [3, 0]"] ;
10 -> 11 ;
12 [label="entropy = 0.0\nsamples = 212\nvalue = [0, 212]"] ;
10 -> 12 ;
}